33 50
の 0.004165 -0.002798 -0.006516 0.006227 -0.003570 -0.005038 0.003272 0.005177 -0.000433 0.008861 -0.003563 -0.008830 0.004307 0.007956 0.005172 -0.008506 0.003967 0.002271 -0.005945 -0.002241 -0.003289 -0.005873 0.004710 -0.007682 -0.003080 0.003151 0.005767 -0.008804 0.001986 -0.005179 -0.005637 0.004983 -0.009482 0.006017 -0.007926 0.009269 0.003375 0.004509 -0.001199 -0.008796 0.006989 -0.005843 0.002734 0.000919 -0.006497 -0.007979 0.008558 -0.007313 -0.008147 -0.007369
に 0.003714 0.009055 0.004290 -0.005386 -0.004345 -0.001280 0.008353 -0.006906 -0.007810 0.006844 0.006963 -0.001749 0.008111 -0.008322 -0.004026 -0.009420 -0.004784 0.001790 0.005060 -0.000239 0.006992 0.005165 -0.004643 0.009318 0.008529 -0.006911 0.004249 0.005351 -0.003040 -0.005693 0.001707 -0.006820 0.002465 0.003808 0.006273 0.005671 -0.008679 0.006588 -0.002660 0.006142 0.003752 0.006127 -0.000840 0.008915 0.005764 0.004173 -0.008372 0.001520 0.000890 -0.004256
は 0.007132 0.006598 0.002737 -0.000790 0.008893 0.002850 0.002621 0.003908 -0.009706 0.002878 -0.008109 0.004189 -0.001621 0.005065 -0.007951 -0.007234 0.003393 -0.006441 0.004010 -0.002632 -0.007048 0.000203 -0.006301 0.001170 -0.004610 0.009147 0.008685 0.003504 -0.003344 -0.002911 0.002628 -0.005455 -0.001321 -0.007343 0.003189 -0.002389 -0.000792 -0.008288 -0.008902 0.002868 0.007567 0.006179 -0.007700 -0.009977 -0.002344 0.006035 -0.005149 0.007516 0.000152 0.003550
た -0.004809 -0.005430 0.001980 -0.009843 0.003577 -0.007529 0.009862 -0.006293 -0.000190 0.006582 -0.001211 -0.006447 0.004715 0.007059 0.001292 -0.006039 -0.002182 0.002102 0.002171 -0.008225 -0.007559 0.004711 0.003844 0.004420 -0.008925 -0.009757 0.004009 -0.003517 0.002375 0.000355 -0.002985 0.000524 0.002365 -0.005476 -0.007702 -0.006657 0.005612 -0.006090 0.008883 0.004097 -0.004271 0.000518 0.003528 0.000280 0.007081 -0.007410 -0.007978 0.006048 0.003051 -0.007051
を -0.000109 -0.006945 0.008260 -0.009202 0.009544 -0.007792 -0.001851 0.004963 -0.008458 0.000302 0.002217 0.003002 0.003973 0.002465 0.000013 -0.001520 -0.007577 0.009803 -0.009465 0.002008 0.003809 -0.003950 0.007646 0.003308 -0.006543 -0.004943 0.006455 0.009162 -0.005892 0.004316 0.008606 0.007231 -0.008440 0.000386 0.002353 -0.009686 -0.004129 0.009235 0.002449 0.002525 -0.009948 -0.009802 0.007841 0.000305 0.004292 -0.001592 0.001965 0.008662 0.002511 0.009839
で 0.009998 -0.006041 -0.005173 -0.005527 -0.001379 -0.004197 0.003023 -0.001802 -0.002502 0.005010 0.003572 0.007084 0.003486 0.000028 0.000102 0.002308 -0.006190 0.009524 -0.009420 0.001204 0.004112 0.007971 0.007540 -0.009109 0.008469 -0.009025 0.002241 -0.009082 -0.004494 0.008611 -0.006961 0.004051 0.006131 -0.009891 -0.000911 0.009276 -0.006458 -0.002577 -0.002697 -0.003523 0.008187 -0.001999 0.005439 0.000846 -0.009201 -0.002365 0.001803 -0.008525 -0.006818 0.000926
が -0.009696 -0.001976 -0.002243 -0.000266 -0.007606 0.006840 0.002974 -0.007099 0.005821 -0.008335 -0.005107 0.002174 -0.008898 -0.005120 0.006961 -0.002678 0.009030 -0.003770 0.002046 -0.007835 0.000375 0.007970 0.009922 0.008956 -0.001246 0.001302 -0.001515 0.005379 0.008102 -0.000405 0.004145 0.002039 -0.006417 -0.000061 0.006460 -0.005092 0.002586 -0.006710 -0.001029 0.000574 -0.004261 0.003464 0.001752 0.003939 -0.001987 0.007963 0.001136 0.007107 0.008341 -0.002051
て -0.004202 -0.009692 0.002920 0.009904 -0.006557 -0.003475 0.004811 0.005866 0.008302 -0.004068 0.009449 -0.003121 0.001686 0.002049 0.006730 0.008013 -0.005944 -0.005561 0.000501 -0.004679 0.006803 -0.006084 -0.004328 -0.008029 -0.008140 -0.008969 -0.004495 0.002020 0.007096 -0.003985 0.000546 0.007883 -0.009452 -0.009575 0.006145 0.005565 0.002449 0.000067 -0.005956 -0.008725 0.000235 0.006347 0.005764 -0.000813 0.002546 0.000391 0.006332 0.000154 -0.003173 0.001641
し -0.006041 -0.002562 -0.007213 -0.001287 0.002445 0.009782 -0.007077 0.000591 0.007633 -0.008801 -0.000858 0.004928 0.005405 -0.005385 0.000778 -0.003027 0.004888 0.008699 0.006246 -0.006285 0.008331 0.002676 0.008657 -0.003996 -0.009811 -0.000710 0.006074 -0.002001 0.003711 -0.009130 -0.000194 -0.008076 -0.000104 0.000078 0.004893 0.008330 0.002662 -0.000132 -0.007110 -0.003241 -0.005630 -0.005718 -0.001035 -0.008086 0.002573 -0.001586 -0.006767 -0.009043 -0.002912 -0.009416
と 0.004771 -0.005232 -0.006061 0.004810 -0.002874 0.001041 0.008766 0.001070 0.008112 0.006912 -0.000076 0.008578 0.003309 -0.008235 0.002148 0.006023 0.008989 -0.005435 0.003174 0.007324 0.007026 -0.002549 -0.000870 -0.000163 0.003700 0.001380 0.008302 0.009338 -0.008408 0.002263 0.004860 0.007376 0.002614 0.007604 -0.005805 -0.005699 0.002774 -0.007145 0.000918 -0.006881 -0.008023 -0.007201 -0.006102 -0.005559 0.001852 0.004300 -0.006912 0.005911 -0.006245 0.001640
年 -0.007693 0.003774 -0.002912 0.007755 -0.008597 0.007988 -0.000201 0.006192 -0.001181 0.000347 0.003399 0.003885 0.008212 -0.001940 -0.008771 -0.001217 -0.009708 0.001315 0.005682 0.003885 0.005668 -0.007553 0.000845 -0.007843 -0.006771 -0.007345 -0.006045 -0.000474 -0.003179 -0.001186 -0.009220 -0.002687 -0.003203 0.000794 0.007372 0.004209 0.000574 -0.008185 -0.003026 -0.000392 -0.000428 0.009258 0.009530 0.007588 0.009242 0.002428 0.002663 0.002376 -0.005899 0.009771
する -0.008417 -0.009140 -0.005922 0.008526 -0.002277 0.003707 -0.007820 0.004867 -0.007958 0.003189 -0.004950 0.005582 -0.001055 0.008266 -0.009173 -0.004881 -0.009684 -0.004832 0.000544 -0.002890 0.001140 -0.003972 0.006420 -0.007908 -0.008037 -0.005989 0.008380 0.009925 0.001649 -0.006305 -0.006713 0.000606 -0.006697 -0.002851 0.008867 0.001086 0.005494 -0.006125 -0.004850 -0.001971 0.008847 0.008664 0.003364 -0.005423 -0.000479 -0.007048 -0.006530 0.009322 0.002639 0.008836
れ -0.002771 0.006307 0.007650 -0.003848 -0.006522 -0.004075 -0.003262 -0.002973 0.007276 0.008119 -0.002366 0.007440 -0.006416 0.006606 -0.005174 -0.003059 0.009711 -0.006075 0.007241 -0.006639 -0.004471 0.008207 0.006534 -0.000437 0.003367 -0.008579 -0.003314 0.007177 0.008671 -0.000962 -0.007664 -0.007124 -0.003303 0.002219 0.006057 0.004992 -0.007965 0.000787 0.007494 0.006147 -0.002044 -0.009322 -0.009908 -0.000311 -0.008631 0.006147 0.000322 -0.004137 0.002964 -0.003993
さ 0.008312 -0.003322 0.009317 0.000784 0.009457 -0.001575 0.000069 0.009201 -0.003839 0.008929 -0.001631 0.003674 0.006497 0.007451 0.006578 0.000767 0.008347 -0.009442 0.006606 0.007863 0.008089 -0.003338 0.003370 0.005465 -0.004749 -0.005160 0.003408 0.005137 -0.002804 0.008596 0.004303 -0.009907 0.007096 -0.000613 0.000364 0.008069 -0.004418 -0.004299 0.008028 0.004367 -0.006145 0.000719 -0.007956 -0.007479 0.008568 0.000919 -0.003288 -0.001729 -0.003415 -0.003706
な -0.001795 -0.006045 0.007044 -0.003767 0.009639 0.002747 -0.004668 0.003417 0.004683 -0.002957 0.009166 0.008257 0.006405 0.000617 0.002354 0.001680 -0.002874 -0.001174 -0.004060 -0.006491 -0.002690 -0.008138 -0.005691 -0.007931 0.009243 0.002517 0.008863 -0.002975 0.004798 0.000517 -0.009288 0.006038 0.006115 -0.004796 -0.006672 0.009969 0.000222 0.001703 0.001127 0.000739 -0.006413 0.005579 0.001881 -0.000607 0.002792 0.002700 0.008463 -0.009995 -0.000976 -0.004352
も -0.001829 0.004669 0.004972 0.001794 0.007478 -0.005138 -0.005606 -0.006439 0.000933 0.000534 0.007837 0.006010 -0.001333 -0.001330 0.001200 -0.006792 -0.000614 -0.006044 0.005072 0.007512 -0.004873 0.002644 -0.006106 0.004988 0.001404 -0.007750 0.006460 0.009818 -0.007020 -0.000856 0.000517 0.002724 -0.008518 -0.008237 0.004665 -0.005527 -0.000186 0.003392 0.007356 -0.009835 -0.001852 -0.008950 0.006343 0.000778 -0.009859 -0.004202 0.000525 0.007048 0.002625 -0.009200
から 0.002296 -0.002151 -0.008611 0.004937 0.009571 0.009561 -0.001630 -0.008574 -0.006157 0.005177 0.001459 0.000708 -0.003247 0.007122 0.004941 0.003421 0.005177 0.009927 0.007118 -0.007471 -0.001221 -0.001370 -0.001814 0.007291 -0.008680 0.008269 -0.009062 0.007791 -0.005446 -0.009498 0.007204 0.007105 -0.009778 0.002054 0.001190 -0.008783 0.002137 0.002737 0.002229 -0.003625 -0.006251 0.005508 0.007472 -0.005526 0.002425 -0.005022 0.005262 -0.005855 -0.001365 -0.006443
いる -0.007459 0.007573 0.008158 0.007004 -0.006356 0.001343 -0.006202 -0.002030 -0.006116 -0.003520 0.008145 0.002637 0.002215 0.006005 -0.006667 0.002099 0.008280 0.006864 -0.007585 -0.000179 0.004714 -0.005849 -0.008833 0.000721 -0.009946 -0.005962 -0.003820 -0.006634 0.008072 0.008278 -0.004063 -0.002341 0.004870 -0.004272 -0.006588 -0.009388 0.003468 -0.000773 -0.003386 -0.005479 -0.002446 0.006264 -0.003347 0.009762 -0.001855 -0.006810 -0.005889 0.000899 0.001419 0.004234
日 0.004139 -0.009312 -0.000684 -0.009379 -0.009080 0.004464 -0.004139 -0.004673 -0.001370 -0.000799 -0.004747 -0.001622 0.008399 0.009427 0.002866 -0.001727 -0.009869 -0.001981 0.008975 0.008393 -0.000120 0.005690 -0.008143 0.004729 -0.002486 -0.005341 -0.004227 -0.003164 0.005594 -0.008997 0.004927 0.009564 0.007321 0.007556 -0.009917 -0.002021 0.000872 0.002987 -0.009744 0.007835 0.000285 -0.008120 0.006716 -0.000512 -0.007127 0.003105 0.006186 0.007129 -0.008416 0.007138
あっ 0.006326 0.009201 0.009685 0.000786 0.005077 0.004355 0.004479 -0.006261 0.005078 -0.006668 -0.006820 -0.006094 -0.005000 -0.003463 0.001387 -0.008571 -0.000003 -0.002201 0.004458 -0.000097 -0.004437 0.004793 0.007275 0.000097 0.002509 -0.008939 0.004431 0.000768 -0.006062 -0.000524 -0.001531 0.001207 0.007542 0.001748 0.009305 -0.003584 0.000782 0.002949 -0.002262 -0.002432 -0.006915 -0.002059 -0.000905 0.002944 0.008830 0.004887 -0.001138 0.003068 -0.001105 -0.007162
ある -0.003727 -0.004527 0.001315 0.005063 0.002235 0.000386 -0.002746 -0.009598 0.007874 -0.002579 0.007084 -0.000135 0.004991 0.001543 -0.006771 0.008903 -0.007675 -0.008125 -0.002267 -0.003284 0.001206 -0.002082 -0.008770 0.003163 -0.000055 0.000764 -0.007833 -0.004942 0.004760 -0.004636 -0.007865 0.003906 -0.002028 -0.002218 0.003669 0.008342 0.007009 -0.007295 0.000954 -0.005565 0.002915 -0.009403 0.008561 0.002202 0.001269 -0.005939 0.006113 0.008816 -0.009329 0.002606
者 -0.000921 0.003363 -0.003590 0.006041 0.009682 -0.003561 0.006585 0.007217 0.005771 0.000353 -0.006294 0.002821 -0.001907 0.008315 0.000990 -0.001429 -0.008139 0.000666 -0.001028 -0.008252 -0.000165 -0.005681 0.001885 -0.005163 -0.003921 -0.004782 0.000115 -0.002325 0.000146 0.003084 0.008579 -0.004462 0.008872 -0.002023 -0.002918 -0.003984 0.001601 0.000885 0.003381 -0.005501 0.001882 0.005636 -0.001661 -0.007175 -0.008388 -0.004318 0.009102 0.009848 -0.006502 -0.001044
月 -0.002135 -0.006800 -0.004019 -0.001783 -0.009034 -0.009870 0.003640 0.009176 0.004114 -0.004362 -0.003605 -0.008131 0.008489 0.005025 0.003774 0.003619 0.009362 0.002647 0.007208 -0.008043 0.005267 0.001616 0.000257 -0.002656 0.001081 -0.002496 0.008367 -0.005098 -0.006142 0.009663 0.002891 -0.006602 0.008341 0.008765 -0.007102 -0.005533 0.005325 -0.008339 0.002350 -0.003526 -0.003109 -0.006383 -0.009340 -0.001436 0.003775 -0.001423 0.008769 0.007642 -0.007896 -0.007882
また 0.000011 0.004224 0.006234 -0.007507 -0.007981 -0.005971 -0.001901 0.005125 0.003618 -0.003189 -0.001779 0.002746 0.001891 0.006018 -0.001111 -0.004886 -0.008971 0.003989 0.004957 0.002075 0.008600 -0.004555 -0.004110 -0.009294 -0.000349 -0.002087 0.003659 0.008608 0.001669 -0.002556 -0.009661 0.005386 0.005369 -0.000343 0.007854 -0.001288 0.002155 0.002258 -0.007640 0.004495 0.004837 0.007633 0.001038 -0.003382 -0.003769 -0.008323 -0.002104 0.005566 -0.001089 0.003367
この 0.001064 0.007452 0.004072 0.005891 -0.001974 -0.001195 0.002607 0.008624 -0.005832 -0.002530 -0.000186 -0.009480 0.000403 0.006856 -0.006670 -0.006337 -0.007275 -0.004020 0.003345 -0.006740 0.004962 0.001930 -0.007705 0.000056 0.002390 -0.006362 -0.007864 -0.004679 0.007239 -0.009049 -0.005363 -0.002087 -0.009527 0.005863 -0.002127 -0.004526 -0.000156 -0.002828 -0.008828 -0.004257 -0.007073 0.008958 0.005972 -0.005053 -0.008614 -0.009126 0.004163 -0.008789 0.002303 0.008679
県 0.009748 -0.006991 0.004549 -0.006687 0.000753 -0.007774 -0.009354 0.004033 -0.001124 -0.007118 -0.003096 -0.002750 -0.001677 -0.009995 -0.000655 -0.006990 -0.001861 0.003865 0.006499 -0.006577 -0.002759 -0.002044 0.002166 -0.003760 -0.007431 -0.001434 -0.006690 0.004559 0.004257 0.001880 0.001234 0.006943 0.004383 -0.009243 -0.007506 0.001330 -0.008372 -0.003645 0.004489 -0.006219 0.002606 -0.001163 0.005016 -0.004046 -0.009399 -0.006911 -0.008452 -0.005739 0.002071 -0.000053
まで 0.000112 0.004927 0.007644 -0.000448 0.002260 0.006407 0.003191 0.008314 0.004751 0.001066 0.006446 0.007252 -0.002869 -0.006591 0.004695 -0.000090 -0.004156 -0.000235 0.006737 0.007995 0.006953 0.006908 0.003492 0.004539 -0.006135 -0.006818 0.002864 0.007558 0.007560 0.004723 -0.002797 0.008511 0.007483 0.004606 -0.007655 -0.007528 -0.005983 0.005121 0.000619 0.004454 0.009199 0.005686 0.005859 -0.008030 0.005881 -0.005425 -0.002850 0.000499 -0.002504 0.000506
これ 0.001410 -0.004427 0.004453 0.000731 -0.002160 -0.007067 0.003662 0.005775 0.000320 -0.005258 -0.008212 0.008758 0.003021 -0.000205 0.005795 0.003722 0.008670 0.003310 -0.006793 0.004464 -0.001960 0.005824 -0.001567 -0.001468 0.004338 0.008001 -0.003842 0.005672 0.008107 -0.004131 0.007343 -0.009883 -0.008408 -0.000449 -0.001327 -0.003213 0.005483 0.001027 -0.005897 -0.001661 0.003818 0.000205 -0.001319 0.001807 0.009572 -0.004713 0.008665 -0.004316 0.000089 -0.002099
町 0.002772 0.009570 -0.009197 -0.005828 0.004890 -0.002903 0.007950 -0.002543 -0.002858 -0.008098 0.005125 0.002547 0.004919 0.006712 -0.009705 0.004885 -0.003846 -0.001250 -0.009774 -0.000492 -0.007974 -0.007379 0.005634 -0.006236 -0.000604 -0.005591 -0.003911 0.003738 0.004909 -0.000216 -0.006426 0.002322 -0.004220 -0.001612 -0.004831 -0.003121 -0.001093 0.008740 0.003867 -0.007853 0.008549 -0.004178 0.007507 -0.000016 -0.002659 -0.008370 0.008517 0.008292 0.008054 -0.004822
日本 -0.008285 -0.006395 0.002839 -0.006796 0.001987 -0.006405 0.002237 -0.008893 0.004187 -0.000667 0.002226 -0.000860 -0.006687 0.008674 0.008060 0.004057 0.009922 0.004410 0.009406 0.005049 -0.006397 -0.003352 -0.009690 -0.000816 -0.008134 -0.001678 -0.004279 -0.005369 -0.005755 0.008742 -0.001084 0.001239 0.002887 0.007064 0.007637 -0.006285 -0.000549 0.004072 -0.003237 0.004177 -0.009549 -0.001158 0.003542 0.003501 -0.008514 -0.006170 -0.001752 -0.008520 0.005012 -0.003870
い -0.000337 0.005062 0.004581 0.000801 -0.002799 0.007464 0.000578 0.002406 -0.000850 0.006910 0.003374 0.007123 0.003023 0.000198 -0.007016 0.004691 0.002102 -0.004191 -0.009172 -0.004902 0.003570 -0.007536 0.001105 -0.007268 -0.009302 -0.002629 0.001678 -0.004656 -0.008984 -0.005635 -0.006355 -0.004716 0.000481 -0.003238 0.007456 0.009473 0.001869 -0.007453 0.009451 0.009534 0.009398 0.000831 -0.005654 0.008987 0.007045 0.007788 -0.005145 0.000863 -0.004501 0.002316
だ 0.009440 0.009825 0.004127 -0.006926 0.005199 0.008643 -0.006010 -0.003684 0.005223 -0.002817 0.006894 0.001368 -0.003829 -0.009915 0.008464 -0.006244 0.007299 0.003782 -0.005547 -0.001342 0.007087 -0.008341 -0.004626 -0.001369 -0.001626 -0.005492 0.005348 0.000277 0.004424 -0.008129 0.009540 0.000553 0.008042 -0.008954 -0.002427 -0.009059 0.004354 0.008826 -0.005959 -0.007177 -0.000025 -0.008245 0.005717 0.009109 0.005642 -0.001337 -0.003553 0.005237 0.007754 -0.003935
その -0.000657 0.005770 -0.003892 0.002563 -0.008780 -0.007805 -0.006421 0.007258 -0.006189 0.002199 0.002464 0.005268 -0.000074 0.008776 -0.001564 -0.005797 0.009532 -0.008352 0.001348 -0.009210 0.007133 0.003422 0.000298 0.003646 -0.007080 -0.009204 -0.008065 -0.001068 -0.002741 -0.000086 -0.006225 -0.004224 0.003950 0.006828 0.002934 -0.003830 0.006478 0.007954 -0.005891 -0.006959 -0.009616 0.000116 -0.006435 0.005891 0.007507 -0.005458 0.002416 -0.003693 0.002185 0.005676
